digraph Tree {
node [shape=box] ;
0 [label="有自己的房子=否 <= 0.5\nentropy = 0.989\nsamples = 16\nvalue = [7, 9]"] ;
1 [label="entropy = 0.0\nsamples = 6\nvalue = [0, 6]"] ;
0 -> 1 [labeldistance=2.5, labelangle=45, headlabel="True"] ;
2 [label="有工作=否 <= 0.5\nentropy = 0.881\nsamples = 10\nvalue = [7, 3]"] ;
0 -> 2 [labeldistance=2.5, labelangle=-45, headlabel="False"] ;
3 [label="entropy = 0.0\nsamples = 3\nvalue = [0, 3]"] ;
2 -> 3 ;
4 [label="entropy = 0.0\nsamples = 7\nvalue = [7, 0]"] ;
2 -> 4 ;
}